digraph Tree {
node [shape=box] ;
0 [label="X[1] <= 2001.5\ngini = 0.624\nsamples = 849\nvalue = [273, 431, 57, 88]"] ;
1 [label="X[15] <= 301.718\ngini = 0.51\nsamples = 593\nvalue = [123, 388, 0, 82]"] ;
0 -> 1 [labeldistance=2.5, labelangle=45, headlabel="True"] ;
2 [label="X[1] <= 1997.5\ngini = 0.464\nsamples = 532\nvalue = [123, 367, 0, 42]"] ;
1 -> 2 ;
3 [label="X[3] <= 58.05\ngini = 0.197\nsamples = 204\nvalue = [5, 182, 0, 17]"] ;
2 -> 3 ;
4 [label="X[5] <= 787.5\ngini = 0.472\nsamples = 34\nvalue = [0, 21, 0, 13]"] ;
3 -> 4 ;
5 [label="X[18] <= 128.775\ngini = 0.32\nsamples = 10\nvalue = [0, 2, 0, 8]"] ;
4 -> 5 ;
6 [label="gini = 0.0\nsamples = 8\nvalue = [0, 0, 0, 8]"] ;
5 -> 6 ;
7 [label="gini = 0.0\nsamples = 2\nvalue = [0, 2, 0, 0]"] ;
5 -> 7 ;
8 [label="X[8] <= 975.0\ngini = 0.33\nsamples = 24\nvalue = [0, 19, 0, 5]"] ;
4 -> 8 ;
9 [label="X[16] <= 171.468\ngini = 0.172\nsamples = 21\nvalue = [0, 19, 0, 2]"] ;
8 -> 9 ;
10 [label="gini = 0.0\nsamples = 15\nvalue = [0, 15, 0, 0]"] ;
9 -> 10 ;
11 [label="X[11] <= 269.433\ngini = 0.444\nsamples = 6\nvalue = [0, 4, 0, 2]"] ;
9 -> 11 ;
12 [label="gini = 0.0\nsamples = 2\nvalue = [0, 0, 0, 2]"] ;
11 -> 12 ;
13 [label="gini = 0.0\nsamples = 4\nvalue = [0, 4, 0, 0]"] ;
11 -> 13 ;
14 [label="gini = 0.0\nsamples = 3\nvalue = [0, 0, 0, 3]"] ;
8 -> 14 ;
15 [label="X[0] <= 30.5\ngini = 0.102\nsamples = 170\nvalue = [5, 161, 0, 4]"] ;
3 -> 15 ;
16 [label="X[11] <= 281.133\ngini = 0.444\nsamples = 3\nvalue = [0, 1, 0, 2]"] ;
15 -> 16 ;
17 [label="gini = 0.0\nsamples = 2\nvalue = [0, 0, 0, 2]"] ;
16 -> 17 ;
18 [label="gini = 0.0\nsamples = 1\nvalue = [0, 1, 0, 0]"] ;
16 -> 18 ;
19 [label="X[16] <= 199.661\ngini = 0.081\nsamples = 167\nvalue = [5, 160, 0, 2]"] ;
15 -> 19 ;
20 [label="X[7] <= 2193.5\ngini = 0.07\nsamples = 166\nvalue = [5, 160, 0, 1]"] ;
19 -> 20 ;
21 [label="X[8] <= 485.5\ngini = 0.059\nsamples = 165\nvalue = [4, 160, 0, 1]"] ;
20 -> 21 ;
22 [label="X[7] <= 1429.0\ngini = 0.332\nsamples = 19\nvalue = [4, 15, 0, 0]"] ;
21 -> 22 ;
23 [label="gini = 0.0\nsamples = 13\nvalue = [0, 13, 0, 0]"] ;
22 -> 23 ;
24 [label="X[9] <= 175.339\ngini = 0.444\nsamples = 6\nvalue = [4, 2, 0, 0]"] ;
22 -> 24 ;
25 [label="gini = 0.0\nsamples = 2\nvalue = [0, 2, 0, 0]"] ;
24 -> 25 ;
26 [label="gini = 0.0\nsamples = 4\nvalue = [4, 0, 0, 0]"] ;
24 -> 26 ;
27 [label="X[18] <= 134.917\ngini = 0.014\nsamples = 146\nvalue = [0, 145, 0, 1]"] ;
21 -> 27 ;
28 [label="gini = 0.0\nsamples = 141\nvalue = [0, 141, 0, 0]"] ;
27 -> 28 ;
29 [label="X[0] <= 703.5\ngini = 0.32\nsamples = 5\nvalue = [0, 4, 0, 1]"] ;
27 -> 29 ;
30 [label="gini = 0.0\nsamples = 4\nvalue = [0, 4, 0, 0]"] ;
29 -> 30 ;
31 [label="gini = 0.0\nsamples = 1\nvalue = [0, 0, 0, 1]"] ;
29 -> 31 ;
32 [label="gini = 0.0\nsamples = 1\nvalue = [1, 0, 0, 0]"] ;
20 -> 32 ;
33 [label="gini = 0.0\nsamples = 1\nvalue = [0, 0, 0, 1]"] ;
19 -> 33 ;
34 [label="X[3] <= 72.0\ngini = 0.547\nsamples = 328\nvalue = [118, 185, 0, 25]"] ;
2 -> 34 ;
35 [label="X[17] <= 224.683\ngini = 0.495\nsamples = 181\nvalue = [37, 121, 0, 23]"] ;
34 -> 35 ;
36 [label="X[4] <= 2070.167\ngini = 0.337\nsamples = 14\nvalue = [11, 3, 0, 0]"] ;
35 -> 36 ;
37 [label="gini = 0.0\nsamples = 11\nvalue = [11, 0, 0, 0]"] ;
36 -> 37 ;
38 [label="gini = 0.0\nsamples = 3\nvalue = [0, 3, 0, 0]"] ;
36 -> 38 ;
39 [label="X[3] <= 54.6\ngini = 0.458\nsamples = 167\nvalue = [26, 118, 0, 23]"] ;
35 -> 39 ;
40 [label="X[4] <= 1194.5\ngini = 0.614\nsamples = 41\nvalue = [6, 17, 0, 18]"] ;
39 -> 40 ;
41 [label="X[2] <= 5.735\ngini = 0.476\nsamples = 19\nvalue = [4, 13, 0, 2]"] ;
40 -> 41 ;
42 [label="gini = 0.0\nsamples = 11\nvalue = [0, 11, 0, 0]"] ;
41 -> 42 ;
43 [label="X[10] <= 125.508\ngini = 0.625\nsamples = 8\nvalue = [4, 2, 0, 2]"] ;
41 -> 43 ;
44 [label="gini = 0.0\nsamples = 4\nvalue = [4, 0, 0, 0]"] ;
43 -> 44 ;
45 [label="X[9] <= 242.796\ngini = 0.5\nsamples = 4\nvalue = [0, 2, 0, 2]"] ;
43 -> 45 ;
46 [label="gini = 0.0\nsamples = 2\nvalue = [0, 0, 0, 2]"] ;
45 -> 46 ;
47 [label="gini = 0.0\nsamples = 2\nvalue = [0, 2, 0, 0]"] ;
45 -> 47 ;
48 [label="X[6] <= 1720.75\ngini = 0.43\nsamples = 22\nvalue = [2, 4, 0, 16]"] ;
40 -> 48 ;
49 [label="X[7] <= 1491.0\ngini = 0.32\nsamples = 20\nvalue = [0, 4, 0, 16]"] ;
48 -> 49 ;
50 [label="X[15] <= 299.558\ngini = 0.198\nsamples = 18\nvalue = [0, 2, 0, 16]"] ;
49 -> 50 ;
51 [label="X[10] <= 85.106\ngini = 0.111\nsamples = 17\nvalue = [0, 1, 0, 16]"] ;
50 -> 51 ;
52 [label="gini = 0.0\nsamples = 1\nvalue = [0, 1, 0, 0]"] ;
51 -> 52 ;
53 [label="gini = 0.0\nsamples = 16\nvalue = [0, 0, 0, 16]"] ;
51 -> 53 ;
54 [label="gini = 0.0\nsamples = 1\nvalue = [0, 1, 0, 0]"] ;
50 -> 54 ;
55 [label="gini = 0.0\nsamples = 2\nvalue = [0, 2, 0, 0]"] ;
49 -> 55 ;
56 [label="gini = 0.0\nsamples = 2\nvalue = [2, 0, 0, 0]"] ;
48 -> 56 ;
57 [label="X[15] <= 273.548\ngini = 0.331\nsamples = 126\nvalue = [20, 101, 0, 5]"] ;
39 -> 57 ;
58 [label="X[13] <= 303.033\ngini = 0.498\nsamples = 15\nvalue = [8, 7, 0, 0]"] ;
57 -> 58 ;
59 [label="X[6] <= 457.667\ngini = 0.245\nsamples = 7\nvalue = [1, 6, 0, 0]"] ;
58 -> 59 ;
60 [label="gini = 0.0\nsamples = 1\nvalue = [1, 0, 0, 0]"] ;
59 -> 60 ;
61 [label="gini = 0.0\nsamples = 6\nvalue = [0, 6, 0, 0]"] ;
59 -> 61 ;
62 [label="X[2] <= 5.37\ngini = 0.219\nsamples = 8\nvalue = [7, 1, 0, 0]"] ;
58 -> 62 ;
63 [label="gini = 0.0\nsamples = 1\nvalue = [0, 1, 0, 0]"] ;
62 -> 63 ;
64 [label="gini = 0.0\nsamples = 7\nvalue = [7, 0, 0, 0]"] ;
62 -> 64 ;
65 [label="X[8] <= 1269.0\ngini = 0.269\nsamples = 111\nvalue = [12, 94, 0, 5]"] ;
57 -> 65 ;
66 [label="X[6] <= 299.0\ngini = 0.216\nsamples = 101\nvalue = [8, 89, 0, 4]"] ;
65 -> 66 ;
67 [label="X[6] <= 170.5\ngini = 0.444\nsamples = 3\nvalue = [2, 1, 0, 0]"] ;
66 -> 67 ;
68 [label="gini = 0.0\nsamples = 1\nvalue = [0, 1, 0, 0]"] ;
67 -> 68 ;
69 [label="gini = 0.0\nsamples = 2\nvalue = [2, 0, 0, 0]"] ;
67 -> 69 ;
70 [label="X[13] <= 328.924\ngini = 0.188\nsamples = 98\nvalue = [6, 88, 0, 4]"] ;
66 -> 70 ;
71 [label="X[10] <= 90.837\ngini = 0.172\nsamples = 97\nvalue = [6, 88, 0, 3]"] ;
70 -> 71 ;
72 [label="gini = 0.0\nsamples = 1\nvalue = [1, 0, 0, 0]"] ;
71 -> 72 ;
73 [label="X[0] <= 798.0\ngini = 0.156\nsamples = 96\nvalue = [5, 88, 0, 3]"] ;
71 -> 73 ;
74 [label="X[17] <= 233.555\ngini = 0.106\nsamples = 90\nvalue = [3, 85, 0, 2]"] ;
73 -> 74 ;
75 [label="X[4] <= 1803.5\ngini = 0.375\nsamples = 8\nvalue = [2, 6, 0, 0]"] ;
74 -> 75 ;
76 [label="gini = 0.0\nsamples = 2\nvalue = [2, 0, 0, 0]"] ;
75 -> 76 ;
77 [label="gini = 0.0\nsamples = 6\nvalue = [0, 6, 0, 0]"] ;
75 -> 77 ;
78 [label="X[18] <= 142.517\ngini = 0.071\nsamples = 82\nvalue = [1, 79, 0, 2]"] ;
74 -> 78 ;
79 [label="gini = 0.0\nsamples = 68\nvalue = [0, 68, 0, 0]"] ;
78 -> 79 ;
80 [label="X[17] <= 267.133\ngini = 0.357\nsamples = 14\nvalue = [1, 11, 0, 2]"] ;
78 -> 80 ;
81 [label="gini = 0.0\nsamples = 1\nvalue = [1, 0, 0, 0]"] ;
80 -> 81 ;
82 [label="X[13] <= 285.887\ngini = 0.26\nsamples = 13\nvalue = [0, 11, 0, 2]"] ;
80 -> 82 ;
83 [label="gini = 0.0\nsamples = 1\nvalue = [0, 0, 0, 1]"] ;
82 -> 83 ;
84 [label="X[8] <= 227.125\ngini = 0.153\nsamples = 12\nvalue = [0, 11, 0, 1]"] ;
82 -> 84 ;
85 [label="gini = 0.0\nsamples = 1\nvalue = [0, 0, 0, 1]"] ;
84 -> 85 ;
86 [label="gini = 0.0\nsamples = 11\nvalue = [0, 11, 0, 0]"] ;
84 -> 86 ;
87 [label="X[15] <= 289.581\ngini = 0.611\nsamples = 6\nvalue = [2, 3, 0, 1]"] ;
73 -> 87 ;
88 [label="X[5] <= 1700.75\ngini = 0.48\nsamples = 5\nvalue = [2, 3, 0, 0]"] ;
87 -> 88 ;
89 [label="gini = 0.0\nsamples = 2\nvalue = [0, 2, 0, 0]"] ;
88 -> 89 ;
90 [label="X[4] <= 1274.0\ngini = 0.444\nsamples = 3\nvalue = [2, 1, 0, 0]"] ;
88 -> 90 ;
91 [label="gini = 0.0\nsamples = 2\nvalue = [2, 0, 0, 0]"] ;
90 -> 91 ;
92 [label="gini = 0.0\nsamples = 1\nvalue = [0, 1, 0, 0]"] ;
90 -> 92 ;
93 [label="gini = 0.0\nsamples = 1\nvalue = [0, 0, 0, 1]"] ;
87 -> 93 ;
94 [label="gini = 0.0\nsamples = 1\nvalue = [0, 0, 0, 1]"] ;
70 -> 94 ;
95 [label="X[18] <= 108.625\ngini = 0.58\nsamples = 10\nvalue = [4, 5, 0, 1]"] ;
65 -> 95 ;
96 [label="gini = 0.0\nsamples = 5\nvalue = [0, 5, 0, 0]"] ;
95 -> 96 ;
97 [label="X[7] <= 372.75\ngini = 0.32\nsamples = 5\nvalue = [4, 0, 0, 1]"] ;
95 -> 97 ;
98 [label="gini = 0.0\nsamples = 1\nvalue = [0, 0, 0, 1]"] ;
97 -> 98 ;
99 [label="gini = 0.0\nsamples = 4\nvalue = [4, 0, 0, 0]"] ;
97 -> 99 ;
100 [label="X[17] <= 215.6\ngini = 0.507\nsamples = 147\nvalue = [81, 64, 0, 2]"] ;
34 -> 100 ;
101 [label="X[14] <= 182.919\ngini = 0.278\nsamples = 12\nvalue = [2, 10, 0, 0]"] ;
100 -> 101 ;
102 [label="gini = 0.0\nsamples = 9\nvalue = [0, 9, 0, 0]"] ;
101 -> 102 ;
103 [label="X[17] <= 206.554\ngini = 0.444\nsamples = 3\nvalue = [2, 1, 0, 0]"] ;
101 -> 103 ;
104 [label="gini = 0.0\nsamples = 1\nvalue = [0, 1, 0, 0]"] ;
103 -> 104 ;
105 [label="gini = 0.0\nsamples = 2\nvalue = [2, 0, 0, 0]"] ;
103 -> 105 ;
106 [label="X[16] <= 164.846\ngini = 0.497\nsamples = 135\nvalue = [79, 54, 0, 2]"] ;
100 -> 106 ;
107 [label="X[13] <= 275.298\ngini = 0.421\nsamples = 83\nvalue = [58, 25, 0, 0]"] ;
106 -> 107 ;
108 [label="X[6] <= 785.0\ngini = 0.48\nsamples = 15\nvalue = [6, 9, 0, 0]"] ;
107 -> 108 ;
109 [label="gini = 0.0\nsamples = 3\nvalue = [3, 0, 0, 0]"] ;
108 -> 109 ;
110 [label="X[16] <= 156.823\ngini = 0.375\nsamples = 12\nvalue = [3, 9, 0, 0]"] ;
108 -> 110 ;
111 [label="X[14] <= 163.411\ngini = 0.375\nsamples = 4\nvalue = [3, 1, 0, 0]"] ;
110 -> 111 ;
112 [label="gini = 0.0\nsamples = 3\nvalue = [3, 0, 0, 0]"] ;
111 -> 112 ;
113 [label="gini = 0.0\nsamples = 1\nvalue = [0, 1, 0, 0]"] ;
111 -> 113 ;
114 [label="gini = 0.0\nsamples = 8\nvalue = [0, 8, 0, 0]"] ;
110 -> 114 ;
115 [label="X[5] <= 1751.3\ngini = 0.36\nsamples = 68\nvalue = [52, 16, 0, 0]"] ;
107 -> 115 ;
116 [label="X[4] <= 1808.0\ngini = 0.289\nsamples = 57\nvalue = [47, 10, 0, 0]"] ;
115 -> 116 ;
117 [label="X[9] <= 201.887\ngini = 0.19\nsamples = 47\nvalue = [42, 5, 0, 0]"] ;
116 -> 117 ;
118 [label="gini = 0.0\nsamples = 1\nvalue = [0, 1, 0, 0]"] ;
117 -> 118 ;
119 [label="X[5] <= 816.0\ngini = 0.159\nsamples = 46\nvalue = [42, 4, 0, 0]"] ;
117 -> 119 ;
120 [label="X[10] <= 97.169\ngini = 0.397\nsamples = 11\nvalue = [8, 3, 0, 0]"] ;
119 -> 120 ;
121 [label="gini = 0.0\nsamples = 6\nvalue = [6, 0, 0, 0]"] ;
120 -> 121 ;
122 [label="X[4] <= 1586.0\ngini = 0.48\nsamples = 5\nvalue = [2, 3, 0, 0]"] ;
120 -> 122 ;
123 [label="gini = 0.0\nsamples = 3\nvalue = [0, 3, 0, 0]"] ;
122 -> 123 ;
124 [label="gini = 0.0\nsamples = 2\nvalue = [2, 0, 0, 0]"] ;
122 -> 124 ;
125 [label="X[13] <= 310.629\ngini = 0.056\nsamples = 35\nvalue = [34, 1, 0, 0]"] ;
119 -> 125 ;
126 [label="gini = 0.0\nsamples = 34\nvalue = [34, 0, 0, 0]"] ;
125 -> 126 ;
127 [label="gini = 0.0\nsamples = 1\nvalue = [0, 1, 0, 0]"] ;
125 -> 127 ;
128 [label="X[9] <= 209.71\ngini = 0.5\nsamples = 10\nvalue = [5, 5, 0, 0]"] ;
116 -> 128 ;
129 [label="X[6] <= 3729.0\ngini = 0.278\nsamples = 6\nvalue = [1, 5, 0, 0]"] ;
128 -> 129 ;
130 [label="gini = 0.0\nsamples = 5\nvalue = [0, 5, 0, 0]"] ;
129 -> 130 ;
131 [label="gini = 0.0\nsamples = 1\nvalue = [1, 0, 0, 0]"] ;
129 -> 131 ;
132 [label="gini = 0.0\nsamples = 4\nvalue = [4, 0, 0, 0]"] ;
128 -> 132 ;
133 [label="X[10] <= 99.129\ngini = 0.496\nsamples = 11\nvalue = [5, 6, 0, 0]"] ;
115 -> 133 ;
134 [label="gini = 0.0\nsamples = 5\nvalue = [0, 5, 0, 0]"] ;
133 -> 134 ;
135 [label="X[13] <= 312.562\ngini = 0.278\nsamples = 6\nvalue = [5, 1, 0, 0]"] ;
133 -> 135 ;
136 [label="gini = 0.0\nsamples = 5\nvalue = [5, 0, 0, 0]"] ;
135 -> 136 ;
137 [label="gini = 0.0\nsamples = 1\nvalue = [0, 1, 0, 0]"] ;
135 -> 137 ;
138 [label="X[15] <= 276.887\ngini = 0.524\nsamples = 52\nvalue = [21, 29, 0, 2]"] ;
106 -> 138 ;
139 [label="X[0] <= 279.0\ngini = 0.432\nsamples = 19\nvalue = [13, 6, 0, 0]"] ;
138 -> 139 ;
140 [label="gini = 0.0\nsamples = 9\nvalue = [9, 0, 0, 0]"] ;
139 -> 140 ;
141 [label="X[0] <= 388.0\ngini = 0.48\nsamples = 10\nvalue = [4, 6, 0, 0]"] ;
139 -> 141 ;
142 [label="gini = 0.0\nsamples = 4\nvalue = [0, 4, 0, 0]"] ;
141 -> 142 ;
143 [label="X[13] <= 285.048\ngini = 0.444\nsamples = 6\nvalue = [4, 2, 0, 0]"] ;
141 -> 143 ;
144 [label="gini = 0.0\nsamples = 4\nvalue = [4, 0, 0, 0]"] ;
143 -> 144 ;
145 [label="gini = 0.0\nsamples = 2\nvalue = [0, 2, 0, 0]"] ;
143 -> 145 ;
146 [label="X[2] <= 0.85\ngini = 0.452\nsamples = 33\nvalue = [8, 23, 0, 2]"] ;
138 -> 146 ;
147 [label="X[7] <= 795.5\ngini = 0.604\nsamples = 15\nvalue = [6, 7, 0, 2]"] ;
146 -> 147 ;
148 [label="X[10] <= 105.242\ngini = 0.569\nsamples = 12\nvalue = [3, 7, 0, 2]"] ;
147 -> 148 ;
149 [label="gini = 0.0\nsamples = 5\nvalue = [0, 5, 0, 0]"] ;
148 -> 149 ;
150 [label="X[2] <= -5.005\ngini = 0.653\nsamples = 7\nvalue = [3, 2, 0, 2]"] ;
148 -> 150 ;
151 [label="gini = 0.0\nsamples = 2\nvalue = [0, 0, 0, 2]"] ;
150 -> 151 ;
152 [label="X[16] <= 168.489\ngini = 0.48\nsamples = 5\nvalue = [3, 2, 0, 0]"] ;
150 -> 152 ;
153 [label="gini = 0.0\nsamples = 2\nvalue = [0, 2, 0, 0]"] ;
152 -> 153 ;
154 [label="gini = 0.0\nsamples = 3\nvalue = [3, 0, 0, 0]"] ;
152 -> 154 ;
155 [label="gini = 0.0\nsamples = 3\nvalue = [3, 0, 0, 0]"] ;
147 -> 155 ;
156 [label="X[0] <= 44.0\ngini = 0.198\nsamples = 18\nvalue = [2, 16, 0, 0]"] ;
146 -> 156 ;
157 [label="gini = 0.0\nsamples = 1\nvalue = [1, 0, 0, 0]"] ;
156 -> 157 ;
158 [label="X[17] <= 281.583\ngini = 0.111\nsamples = 17\nvalue = [1, 16, 0, 0]"] ;
156 -> 158 ;
159 [label="gini = 0.0\nsamples = 15\nvalue = [0, 15, 0, 0]"] ;
158 -> 159 ;
160 [label="X[17] <= 283.433\ngini = 0.5\nsamples = 2\nvalue = [1, 1, 0, 0]"] ;
158 -> 160 ;
161 [label="gini = 0.0\nsamples = 1\nvalue = [1, 0, 0, 0]"] ;
160 -> 161 ;
162 [label="gini = 0.0\nsamples = 1\nvalue = [0, 1, 0, 0]"] ;
160 -> 162 ;
163 [label="X[1] <= 1999.5\ngini = 0.451\nsamples = 61\nvalue = [0, 21, 0, 40]"] ;
1 -> 163 ;
164 [label="X[3] <= 68.6\ngini = 0.355\nsamples = 52\nvalue = [0, 12, 0, 40]"] ;
163 -> 164 ;
165 [label="X[5] <= 838.75\ngini = 0.184\nsamples = 39\nvalue = [0, 4, 0, 35]"] ;
164 -> 165 ;
166 [label="X[9] <= 197.828\ngini = 0.426\nsamples = 13\nvalue = [0, 4, 0, 9]"] ;
165 -> 166 ;
167 [label="gini = 0.0\nsamples = 9\nvalue = [0, 0, 0, 9]"] ;
166 -> 167 ;
168 [label="gini = 0.0\nsamples = 4\nvalue = [0, 4, 0, 0]"] ;
166 -> 168 ;
169 [label="gini = 0.0\nsamples = 26\nvalue = [0, 0, 0, 26]"] ;
165 -> 169 ;
170 [label="X[5] <= 744.25\ngini = 0.473\nsamples = 13\nvalue = [0, 8, 0, 5]"] ;
164 -> 170 ;
171 [label="gini = 0.0\nsamples = 3\nvalue = [0, 0, 0, 3]"] ;
170 -> 171 ;
172 [label="X[0] <= 85.0\ngini = 0.32\nsamples = 10\nvalue = [0, 8, 0, 2]"] ;
170 -> 172 ;
173 [label="X[3] <= 72.7\ngini = 0.444\nsamples = 3\nvalue = [0, 1, 0, 2]"] ;
172 -> 173 ;
174 [label="gini = 0.0\nsamples = 1\nvalue = [0, 1, 0, 0]"] ;
173 -> 174 ;
175 [label="gini = 0.0\nsamples = 2\nvalue = [0, 0, 0, 2]"] ;
173 -> 175 ;
176 [label="gini = 0.0\nsamples = 7\nvalue = [0, 7, 0, 0]"] ;
172 -> 176 ;
177 [label="gini = 0.0\nsamples = 9\nvalue = [0, 9, 0, 0]"] ;
163 -> 177 ;
178 [label="X[2] <= -2.34\ngini = 0.578\nsamples = 256\nvalue = [150, 43, 57, 6]"] ;
0 -> 178 [labeldistance=2.5, labelangle=-45, headlabel="False"] ;
179 [label="X[3] <= 72.0\ngini = 0.525\nsamples = 44\nvalue = [10, 28, 0, 6]"] ;
178 -> 179 ;
180 [label="X[4] <= 969.5\ngini = 0.42\nsamples = 34\nvalue = [3, 25, 0, 6]"] ;
179 -> 180 ;
181 [label="X[15] <= 313.877\ngini = 0.444\nsamples = 6\nvalue = [0, 2, 0, 4]"] ;
180 -> 181 ;
182 [label="X[13] <= 325.0\ngini = 0.444\nsamples = 3\nvalue = [0, 2, 0, 1]"] ;
181 -> 182 ;
183 [label="gini = 0.0\nsamples = 2\nvalue = [0, 2, 0, 0]"] ;
182 -> 183 ;
184 [label="gini = 0.0\nsamples = 1\nvalue = [0, 0, 0, 1]"] ;
182 -> 184 ;
185 [label="gini = 0.0\nsamples = 3\nvalue = [0, 0, 0, 3]"] ;
181 -> 185 ;
186 [label="X[14] <= 193.774\ngini = 0.309\nsamples = 28\nvalue = [3, 23, 0, 2]"] ;
180 -> 186 ;
187 [label="X[9] <= 218.113\ngini = 0.159\nsamples = 23\nvalue = [0, 21, 0, 2]"] ;
186 -> 187 ;
188 [label="X[13] <= 316.061\ngini = 0.087\nsamples = 22\nvalue = [0, 21, 0, 1]"] ;
187 -> 188 ;
189 [label="gini = 0.0\nsamples = 19\nvalue = [0, 19, 0, 0]"] ;
188 -> 189 ;
190 [label="X[8] <= 567.75\ngini = 0.444\nsamples = 3\nvalue = [0, 2, 0, 1]"] ;
188 -> 190 ;
191 [label="gini = 0.0\nsamples = 2\nvalue = [0, 2, 0, 0]"] ;
190 -> 191 ;
192 [label="gini = 0.0\nsamples = 1\nvalue = [0, 0, 0, 1]"] ;
190 -> 192 ;
193 [label="gini = 0.0\nsamples = 1\nvalue = [0, 0, 0, 1]"] ;
187 -> 193 ;
194 [label="X[12] <= 179.471\ngini = 0.48\nsamples = 5\nvalue = [3, 2, 0, 0]"] ;
186 -> 194 ;
195 [label="gini = 0.0\nsamples = 3\nvalue = [3, 0, 0, 0]"] ;
194 -> 195 ;
196 [label="gini = 0.0\nsamples = 2\nvalue = [0, 2, 0, 0]"] ;
194 -> 196 ;
197 [label="X[15] <= 268.616\ngini = 0.42\nsamples = 10\nvalue = [7, 3, 0, 0]"] ;
179 -> 197 ;
198 [label="X[18] <= 101.793\ngini = 0.375\nsamples = 4\nvalue = [1, 3, 0, 0]"] ;
197 -> 198 ;
199 [label="gini = 0.0\nsamples = 1\nvalue = [1, 0, 0, 0]"] ;
198 -> 199 ;
200 [label="gini = 0.0\nsamples = 3\nvalue = [0, 3, 0, 0]"] ;
198 -> 200 ;
201 [label="gini = 0.0\nsamples = 6\nvalue = [6, 0, 0, 0]"] ;
197 -> 201 ;
202 [label="X[16] <= 148.984\ngini = 0.487\nsamples = 212\nvalue = [140, 15, 57, 0]"] ;
178 -> 202 ;
203 [label="X[3] <= 61.95\ngini = 0.5\nsamples = 104\nvalue = [53, 0, 51, 0]"] ;
202 -> 203 ;
204 [label="X[2] <= 2.3\ngini = 0.153\nsamples = 24\nvalue = [22, 0, 2, 0]"] ;
203 -> 204 ;
205 [label="gini = 0.0\nsamples = 1\nvalue = [0, 0, 1, 0]"] ;
204 -> 205 ;
206 [label="X[15] <= 246.603\ngini = 0.083\nsamples = 23\nvalue = [22, 0, 1, 0]"] ;
204 -> 206 ;
207 [label="X[12] <= 133.285\ngini = 0.5\nsamples = 2\nvalue = [1, 0, 1, 0]"] ;
206 -> 207 ;
208 [label="gini = 0.0\nsamples = 1\nvalue = [1, 0, 0, 0]"] ;
207 -> 208 ;
209 [label="gini = 0.0\nsamples = 1\nvalue = [0, 0, 1, 0]"] ;
207 -> 209 ;
210 [label="gini = 0.0\nsamples = 21\nvalue = [21, 0, 0, 0]"] ;
206 -> 210 ;
211 [label="X[10] <= 63.94\ngini = 0.475\nsamples = 80\nvalue = [31, 0, 49, 0]"] ;
203 -> 211 ;
212 [label="X[16] <= 136.792\ngini = 0.153\nsamples = 12\nvalue = [11, 0, 1, 0]"] ;
211 -> 212 ;
213 [label="X[9] <= 202.949\ngini = 0.5\nsamples = 2\nvalue = [1, 0, 1, 0]"] ;
212 -> 213 ;
214 [label="gini = 0.0\nsamples = 1\nvalue = [0, 0, 1, 0]"] ;
213 -> 214 ;
215 [label="gini = 0.0\nsamples = 1\nvalue = [1, 0, 0, 0]"] ;
213 -> 215 ;
216 [label="gini = 0.0\nsamples = 10\nvalue = [10, 0, 0, 0]"] ;
212 -> 216 ;
217 [label="X[4] <= 2451.875\ngini = 0.415\nsamples = 68\nvalue = [20, 0, 48, 0]"] ;
211 -> 217 ;
218 [label="X[8] <= 155.167\ngini = 0.289\nsamples = 57\nvalue = [10, 0, 47, 0]"] ;
217 -> 218 ;
219 [label="X[17] <= 265.558\ngini = 0.49\nsamples = 7\nvalue = [4, 0, 3, 0]"] ;
218 -> 219 ;
220 [label="gini = 0.0\nsamples = 4\nvalue = [4, 0, 0, 0]"] ;
219 -> 220 ;
221 [label="gini = 0.0\nsamples = 3\nvalue = [0, 0, 3, 0]"] ;
219 -> 221 ;
222 [label="X[17] <= 230.558\ngini = 0.211\nsamples = 50\nvalue = [6, 0, 44, 0]"] ;
218 -> 222 ;
223 [label="gini = 0.0\nsamples = 1\nvalue = [1, 0, 0, 0]"] ;
222 -> 223 ;
224 [label="X[9] <= 243.887\ngini = 0.183\nsamples = 49\nvalue = [5, 0, 44, 0]"] ;
222 -> 224 ;
225 [label="X[4] <= 2221.667\ngini = 0.153\nsamples = 48\nvalue = [4, 0, 44, 0]"] ;
224 -> 225 ;
226 [label="X[13] <= 260.702\ngini = 0.087\nsamples = 44\nvalue = [2, 0, 42, 0]"] ;
225 -> 226 ;
227 [label="X[17] <= 250.553\ngini = 0.444\nsamples = 3\nvalue = [1, 0, 2, 0]"] ;
226 -> 227 ;
228 [label="gini = 0.0\nsamples = 2\nvalue = [0, 0, 2, 0]"] ;
227 -> 228 ;
229 [label="gini = 0.0\nsamples = 1\nvalue = [1, 0, 0, 0]"] ;
227 -> 229 ;
230 [label="X[18] <= 133.458\ngini = 0.048\nsamples = 41\nvalue = [1, 0, 40, 0]"] ;
226 -> 230 ;
231 [label="gini = 0.0\nsamples = 38\nvalue = [0, 0, 38, 0]"] ;
230 -> 231 ;
232 [label="X[3] <= 68.45\ngini = 0.444\nsamples = 3\nvalue = [1, 0, 2, 0]"] ;
230 -> 232 ;
233 [label="gini = 0.0\nsamples = 1\nvalue = [1, 0, 0, 0]"] ;
232 -> 233 ;
234 [label="gini = 0.0\nsamples = 2\nvalue = [0, 0, 2, 0]"] ;
232 -> 234 ;
235 [label="X[10] <= 98.414\ngini = 0.5\nsamples = 4\nvalue = [2, 0, 2, 0]"] ;
225 -> 235 ;
236 [label="gini = 0.0\nsamples = 2\nvalue = [2, 0, 0, 0]"] ;
235 -> 236 ;
237 [label="gini = 0.0\nsamples = 2\nvalue = [0, 0, 2, 0]"] ;
235 -> 237 ;
238 [label="gini = 0.0\nsamples = 1\nvalue = [1, 0, 0, 0]"] ;
224 -> 238 ;
239 [label="X[7] <= 1206.0\ngini = 0.165\nsamples = 11\nvalue = [10, 0, 1, 0]"] ;
217 -> 239 ;
240 [label="gini = 0.0\nsamples = 9\nvalue = [9, 0, 0, 0]"] ;
239 -> 240 ;
241 [label="X[11] <= 247.717\ngini = 0.5\nsamples = 2\nvalue = [1, 0, 1, 0]"] ;
239 -> 241 ;
242 [label="gini = 0.0\nsamples = 1\nvalue = [1, 0, 0, 0]"] ;
241 -> 242 ;
243 [label="gini = 0.0\nsamples = 1\nvalue = [0, 0, 1, 0]"] ;
241 -> 243 ;
244 [label="X[16] <= 186.419\ngini = 0.329\nsamples = 108\nvalue = [87, 15, 6, 0]"] ;
202 -> 244 ;
245 [label="X[6] <= 644.0\ngini = 0.288\nsamples = 103\nvalue = [86, 11, 6, 0]"] ;
244 -> 245 ;
246 [label="X[4] <= 1051.0\ngini = 0.496\nsamples = 11\nvalue = [6, 5, 0, 0]"] ;
245 -> 246 ;
247 [label="gini = 0.0\nsamples = 4\nvalue = [4, 0, 0, 0]"] ;
246 -> 247 ;
248 [label="X[17] <= 262.333\ngini = 0.408\nsamples = 7\nvalue = [2, 5, 0, 0]"] ;
246 -> 248 ;
249 [label="gini = 0.0\nsamples = 4\nvalue = [0, 4, 0, 0]"] ;
248 -> 249 ;
250 [label="X[9] <= 214.677\ngini = 0.444\nsamples = 3\nvalue = [2, 1, 0, 0]"] ;
248 -> 250 ;
251 [label="gini = 0.0\nsamples = 2\nvalue = [2, 0, 0, 0]"] ;
250 -> 251 ;
252 [label="gini = 0.0\nsamples = 1\nvalue = [0, 1, 0, 0]"] ;
250 -> 252 ;
253 [label="X[10] <= 130.694\ngini = 0.235\nsamples = 92\nvalue = [80, 6, 6, 0]"] ;
245 -> 253 ;
254 [label="X[6] <= 2431.0\ngini = 0.22\nsamples = 91\nvalue = [80, 6, 5, 0]"] ;
253 -> 254 ;
255 [label="X[15] <= 260.134\ngini = 0.203\nsamples = 90\nvalue = [80, 6, 4, 0]"] ;
254 -> 255 ;
256 [label="gini = 0.0\nsamples = 1\nvalue = [0, 0, 1, 0]"] ;
255 -> 256 ;
257 [label="X[13] <= 314.742\ngini = 0.186\nsamples = 89\nvalue = [80, 6, 3, 0]"] ;
255 -> 257 ;
258 [label="X[15] <= 305.048\ngini = 0.154\nsamples = 85\nvalue = [78, 4, 3, 0]"] ;
257 -> 258 ;
259 [label="X[16] <= 177.798\ngini = 0.105\nsamples = 73\nvalue = [69, 1, 3, 0]"] ;
258 -> 259 ;
260 [label="X[18] <= 130.692\ngini = 0.083\nsamples = 70\nvalue = [67, 1, 2, 0]"] ;
259 -> 260 ;
261 [label="X[0] <= 169.5\ngini = 0.058\nsamples = 67\nvalue = [65, 1, 1, 0]"] ;
260 -> 261 ;
262 [label="X[0] <= 156.5\ngini = 0.24\nsamples = 15\nvalue = [13, 1, 1, 0]"] ;
261 -> 262 ;
263 [label="X[10] <= 65.218\ngini = 0.133\nsamples = 14\nvalue = [13, 0, 1, 0]"] ;
262 -> 263 ;
264 [label="gini = 0.0\nsamples = 1\nvalue = [0, 0, 1, 0]"] ;
263 -> 264 ;
265 [label="gini = 0.0\nsamples = 13\nvalue = [13, 0, 0, 0]"] ;
263 -> 265 ;
266 [label="gini = 0.0\nsamples = 1\nvalue = [0, 1, 0, 0]"] ;
262 -> 266 ;
267 [label="gini = 0.0\nsamples = 52\nvalue = [52, 0, 0, 0]"] ;
261 -> 267 ;
268 [label="X[9] <= 203.073\ngini = 0.444\nsamples = 3\nvalue = [2, 0, 1, 0]"] ;
260 -> 268 ;
269 [label="gini = 0.0\nsamples = 1\nvalue = [0, 0, 1, 0]"] ;
268 -> 269 ;
270 [label="gini = 0.0\nsamples = 2\nvalue = [2, 0, 0, 0]"] ;
268 -> 270 ;
271 [label="X[13] <= 286.968\ngini = 0.444\nsamples = 3\nvalue = [2, 0, 1, 0]"] ;
259 -> 271 ;
272 [label="gini = 0.0\nsamples = 1\nvalue = [0, 0, 1, 0]"] ;
271 -> 272 ;
273 [label="gini = 0.0\nsamples = 2\nvalue = [2, 0, 0, 0]"] ;
271 -> 273 ;
274 [label="X[15] <= 305.787\ngini = 0.375\nsamples = 12\nvalue = [9, 3, 0, 0]"] ;
258 -> 274 ;
275 [label="gini = 0.0\nsamples = 2\nvalue = [0, 2, 0, 0]"] ;
274 -> 275 ;
276 [label="X[10] <= 76.4\ngini = 0.18\nsamples = 10\nvalue = [9, 1, 0, 0]"] ;
274 -> 276 ;
277 [label="gini = 0.0\nsamples = 1\nvalue = [0, 1, 0, 0]"] ;
276 -> 277 ;
278 [label="gini = 0.0\nsamples = 9\nvalue = [9, 0, 0, 0]"] ;
276 -> 278 ;
279 [label="X[5] <= 902.0\ngini = 0.5\nsamples = 4\nvalue = [2, 2, 0, 0]"] ;
257 -> 279 ;
280 [label="gini = 0.0\nsamples = 2\nvalue = [2, 0, 0, 0]"] ;
279 -> 280 ;
281 [label="gini = 0.0\nsamples = 2\nvalue = [0, 2, 0, 0]"] ;
279 -> 281 ;
282 [label="gini = 0.0\nsamples = 1\nvalue = [0, 0, 1, 0]"] ;
254 -> 282 ;
283 [label="gini = 0.0\nsamples = 1\nvalue = [0, 0, 1, 0]"] ;
253 -> 283 ;
284 [label="X[4] <= 985.333\ngini = 0.32\nsamples = 5\nvalue = [1, 4, 0, 0]"] ;
244 -> 284 ;
285 [label="gini = 0.0\nsamples = 1\nvalue = [1, 0, 0, 0]"] ;
284 -> 285 ;
286 [label="gini = 0.0\nsamples = 4\nvalue = [0, 4, 0, 0]"] ;
284 -> 286 ;
}